double score(double * input) {
    double var0;
    if (input[1] >= 3.0333543) {
        if (input[3] >= 5.8092732) {
            if (input[4] >= 3.2523956) {
                if (input[5] >= 65.058685) {
                    if (input[1] >= 13.534949) {
                        if (input[0] >= 20.0) {
                            var0 = 0.0019631227;
                        } else {
                            var0 = -0.0009991496;
                        }
                    } else {
                        if (input[1] >= 6.617537) {
                            if (input[4] >= 3.3300796) {
                                if (input[5] >= 95.91725) {
                                    var0 = -0.005205086;
                                } else {
                                    if (input[1] >= 8.188119) {
                                        if (input[0] >= 20.0) {
                                            var0 = 0.0003775725;
                                        } else {
                                            var0 = -0.00060489;
                                        }
                                    } else {
                                        var0 = -0.0032746086;
                                    }
                                }
                            } else {
                                var0 = 0.0006295562;
                            }
                        } else {
                            if (input[2] >= -0.0068840976) {
                                var0 = -0.0063084387;
                            } else {
                                if (input[4] >= 3.3301368) {
                                    if (input[1] >= 6.276129) {
                                        if (input[4] >= 3.4444947) {
                                            if (input[1] >= 6.3277736) {
                                                var0 = -0.00028729084;
                                            } else {
                                                var0 = 0.000104791114;
                                            }
                                        } else {
                                            var0 = 0.0011315093;
                                        }
                                    } else {
                                        var0 = -0.0008783699;
                                    }
                                } else {
                                    if (input[1] >= 6.539523) {
                                        var0 = 0.00019555795;
                                    } else {
                                        var0 = -0.0023744209;
                                    }
                                }
                            }
                        }
                    }
                } else {
                    if (input[1] >= 10.455765) {
                        var0 = -0.0021687872;
                    } else {
                        var0 = -0.0084837815;
                    }
                }
            } else {
                if (input[1] >= 7.556157) {
                    if (input[5] >= 900.00824) {
                        var0 = -0.005302464;
                    } else {
                        if (input[1] >= 8.641786) {
                            var0 = 0.0063955635;
                        } else {
                            if (input[1] >= 8.465532) {
                                if (input[1] >= 8.525703) {
                                    var0 = -0.0016657867;
                                } else {
                                    var0 = 0.000006045242;
                                }
                            } else {
                                if (input[5] >= 174.26505) {
                                    if (input[2] >= -0.29013422) {
                                        if (input[1] >= 8.201212) {
                                            var0 = 0.000003950596;
                                        } else {
                                            var0 = 0.0027684113;
                                        }
                                    } else {
                                        var0 = -0.0008250337;
                                    }
                                } else {
                                    if (input[4] >= 1.7971866) {
                                        var0 = 0.004393566;
                                    } else {
                                        var0 = 0.0012931306;
                                    }
                                }
                            }
                        }
                    }
                } else {
                    if (input[5] >= 510.56024) {
                        var0 = -0.007855704;
                    } else {
                        if (input[2] >= -0.012806524) {
                            if (input[4] >= 3.0399508) {
                                var0 = 0.0001609764;
                            } else {
                                if (input[2] >= -0.0059224265) {
                                    if (input[1] >= 6.137898) {
                                        var0 = -0.0063945353;
                                    } else {
                                        var0 = -0.0013694678;
                                    }
                                } else {
                                    var0 = -0.0012333997;
                                }
                            }
                        } else {
                            if (input[4] >= 2.229475) {
                                if (input[3] >= 6.0435295) {
                                    if (input[4] >= 3.0840995) {
                                        if (input[1] >= 6.8209014) {
                                            var0 = 0.00054798083;
                                        } else {
                                            if (input[1] >= 6.765197) {
                                                var0 = -0.00014775644;
                                            } else {
                                                var0 = -0.0005645054;
                                            }
                                        }
                                    } else {
                                        if (input[1] >= 6.4511166) {
                                            if (input[1] >= 7.3324094) {
                                                var0 = 0.00047116046;
                                            } else {
                                                if (input[4] >= 2.964198) {
                                                    var0 = 0.0009270051;
                                                } else {
                                                    if (input[2] >= -0.065848865) {
                                                        if (input[0] >= 17.5) {
                                                            var0 = 0.00012615269;
                                                        } else {
                                                            var0 = 0.0017146763;
                                                        }
                                                    } else {
                                                        var0 = 0.0028490596;
                                                    }
                                                }
                                            }
                                        } else {
                                            if (input[4] >= 2.9456677) {
                                                if (input[5] >= 103.787) {
                                                    var0 = 0.0022821506;
                                                } else {
                                                    var0 = 0.0005565255;
                                                }
                                            } else {
                                                if (input[4] >= 2.895627) {
                                                    var0 = -0.00095715205;
                                                } else {
                                                    if (input[5] >= 184.8689) {
                                                        if (input[0] >= 20.0) {
                                                            var0 = 0.00008536504;
                                                        } else {
                                                            var0 = -0.0000024180968;
                                                        }
                                                    } else {
                                                        var0 = 0.0004461717;
                                                    }
                                                }
                                            }
                                        }
                                    }
                                } else {
                                    if (input[3] >= 5.9614873) {
                                        if (input[1] >= 6.214118) {
                                            var0 = -0.00007786859;
                                        } else {
                                            var0 = -0.00083602325;
                                        }
                                    } else {
                                        var0 = -0.0026258403;
                                    }
                                }
                            } else {
                                if (input[5] >= 449.39764) {
                                    var0 = 0.003869235;
                                } else {
                                    if (input[5] >= 131.36412) {
                                        var0 = -0.003578271;
                                    } else {
                                        if (input[1] >= 6.92859) {
                                            var0 = 0.00073544966;
                                        } else {
                                            var0 = -0.0013616751;
                                        }
                                    }
                                }
                            }
                        }
                    }
                }
            }
        } else {
            if (input[5] >= 12.013016) {
                if (input[3] >= 4.0428724) {
                    if (input[2] >= -0.89853716) {
                        if (input[4] >= 3.6656976) {
                            if (input[2] >= -0.11619224) {
                                var0 = -0.0067825923;
                            } else {
                                var0 = -0.010517025;
                            }
                        } else {
                            if (input[0] >= 41.0) {
                                if (input[2] >= -0.3353885) {
                                    var0 = -0.010613655;
                                } else {
                                    var0 = -0.002812289;
                                }
                            } else {
                                if (input[0] >= 38.0) {
                                    if (input[1] >= 5.2706757) {
                                        if (input[4] >= 2.556624) {
                                            if (input[5] >= 102.78516) {
                                                if (input[1] >= 6.00171) {
                                                    var0 = 0.0001522709;
                                                } else {
                                                    var0 = -0.0023713482;
                                                }
                                            } else {
                                                if (input[1] >= 5.4237165) {
                                                    var0 = 0.00036483683;
                                                } else {
                                                    var0 = -0.00009552174;
                                                }
                                            }
                                        } else {
                                            var0 = 0.0010692796;
                                        }
                                    } else {
                                        if (input[2] >= -0.05473514) {
                                            var0 = -0.001592244;
                                        } else {
                                            var0 = -0.004831042;
                                        }
                                    }
                                } else {
                                    if (input[4] >= 3.4523728) {
                                        if (input[4] >= 3.5509584) {
                                            if (input[1] >= 4.8652296) {
                                                var0 = -0.004708591;
                                            } else {
                                                var0 = -0.0005200093;
                                            }
                                        } else {
                                            if (input[1] >= 4.9149895) {
                                                var0 = 0.0006039765;
                                            } else {
                                                var0 = -0.000626332;
                                            }
                                        }
                                    } else {
                                        if (input[2] >= -0.3145554) {
                                            var0 = -0.00773039;
                                        } else {
                                            if (input[2] >= -0.54514325) {
                                                if (input[2] >= -0.479344) {
                                                    var0 = -0.0033397952;
                                                } else {
                                                    if (input[1] >= 5.372344) {
                                                        var0 = 0.0000020150806;
                                                    } else {
                                                        var0 = -0.0009043535;
                                                    }
                                                }
                                            } else {
                                                var0 = -0.0066210274;
                                            }
                                        }
                                    }
                                }
                            }
                        }
                    } else {
                        var0 = -0.0153530445;
                    }
                } else {
                    if (input[5] >= 405.758) {
                        if (input[5] >= 408.98004) {
                            var0 = -0.0058055543;
                        } else {
                            var0 = -0.0009744826;
                        }
                    } else {
                        if (input[3] >= 2.4150481) {
                            if (input[4] >= 1.2726693) {
                                if (input[5] >= 21.050632) {
                                    var0 = -0.010746901;
                                } else {
                                    var0 = -0.004115738;
                                }
                            } else {
                                if (input[0] >= 38.0) {
                                    if (input[1] >= 3.8419633) {
                                        var0 = -0.000012252209;
                                    } else {
                                        var0 = -0.00083333615;
                                    }
                                } else {
                                    var0 = -0.00683049;
                                }
                            }
                        } else {
                            var0 = -0.0020341964;
                        }
                    }
                }
            } else {
                var0 = -0.017806957;
            }
        }
    } else {
        if (input[1] >= 1.7488129) {
            if (input[0] >= 12.0) {
                if (input[0] >= 39.5) {
                    if (input[4] >= 1.4355928) {
                        if (input[0] >= 41.0) {
                            if (input[2] >= -0.20789951) {
                                var0 = -0.013287881;
                            } else {
                                if (input[1] >= 2.8284307) {
                                    var0 = -0.0014167046;
                                } else {
                                    var0 = -0.0068171085;
                                }
                            }
                        } else {
                            var0 = -0.014292016;
                        }
                    } else {
                        var0 = -0.0023285546;
                    }
                } else {
                    if (input[1] >= 2.7906885) {
                        var0 = -0.0034049072;
                    } else {
                        if (input[0] >= 30.5) {
                            if (input[2] >= -1.3941722) {
                                var0 = -0.009575131;
                            } else {
                                var0 = -0.0037629928;
                            }
                        } else {
                            var0 = -0.0048079817;
                        }
                    }
                }
            } else {
                var0 = -0.016242025;
            }
        } else {
            if (input[0] >= 12.0) {
                var0 = -0.01736835;
            } else {
                var0 = -0.020520018;
            }
        }
    }
    double var1;
    if (input[1] >= 3.0333543) {
        if (input[3] >= 5.8092732) {
            if (input[4] >= 3.2523956) {
                if (input[5] >= 65.058685) {
                    if (input[1] >= 13.534949) {
                        if (input[0] >= 20.0) {
                            var1 = 0.0018776695;
                        } else {
                            var1 = -0.00097015494;
                        }
                    } else {
                        if (input[4] >= 3.4131756) {
                            if (input[3] >= 6.004425) {
                                if (input[5] >= 95.91725) {
                                    if (input[1] >= 10.371026) {
                                        if (input[5] >= 378.8567) {
                                            var1 = -0.004307257;
                                        } else {
                                            var1 = -0.001330553;
                                        }
                                    } else {
                                        var1 = -0.005730185;
                                    }
                                } else {
                                    if (input[1] >= 8.188119) {
                                        if (input[0] >= 20.0) {
                                            var1 = 0.00036661496;
                                        } else {
                                            var1 = -0.0005873363;
                                        }
                                    } else {
                                        var1 = -0.003147906;
                                    }
                                }
                            } else {
                                if (input[2] >= -0.43414822) {
                                    var1 = -0.00063527277;
                                } else {
                                    var1 = 0.00010175033;
                                }
                            }
                        } else {
                            if (input[4] >= 3.2721386) {
                                if (input[1] >= 9.484575) {
                                    var1 = -0.002612674;
                                } else {
                                    if (input[1] >= 6.284566) {
                                        if (input[4] >= 3.2833557) {
                                            var1 = 0.0011103187;
                                        } else {
                                            var1 = 0.00018988286;
                                        }
                                    } else {
                                        var1 = -0.001313229;
                                    }
                                }
                            } else {
                                if (input[3] >= 6.3301396) {
                                    var1 = -0.0010370531;
                                } else {
                                    var1 = -0.004035225;
                                }
                            }
                        }
                    }
                } else {
                    if (input[1] >= 10.455765) {
                        var1 = -0.002105851;
                    } else {
                        var1 = -0.008061738;
                    }
                }
            } else {
                if (input[1] >= 7.556157) {
                    if (input[5] >= 900.00824) {
                        var1 = -0.0051485905;
                    } else {
                        if (input[1] >= 8.641786) {
                            var1 = 0.0060707727;
                        } else {
                            if (input[1] >= 8.465532) {
                                if (input[1] >= 8.525703) {
                                    var1 = -0.0016174464;
                                } else {
                                    var1 = 0.000005870544;
                                }
                            } else {
                                if (input[5] >= 174.26505) {
                                    if (input[2] >= -0.29013422) {
                                        if (input[1] >= 8.201212) {
                                            var1 = 0.000003836437;
                                        } else {
                                            var1 = 0.0026345165;
                                        }
                                    } else {
                                        var1 = -0.00080109143;
                                    }
                                } else {
                                    if (input[5] >= 133.7593) {
                                        var1 = 0.004782459;
                                    } else {
                                        if (input[1] >= 8.135079) {
                                            var1 = 0.00045530446;
                                        } else {
                                            if (input[4] >= 1.7316103) {
                                                var1 = 0.0029111349;
                                            } else {
                                                var1 = 0.00057429797;
                                            }
                                        }
                                    }
                                }
                            }
                        }
                    }
                } else {
                    if (input[5] >= 510.56024) {
                        var1 = -0.0075517474;
                    } else {
                        if (input[2] >= -0.012806524) {
                            if (input[4] >= 3.0399508) {
                                var1 = 0.00015630452;
                            } else {
                                if (input[2] >= -0.0059224265) {
                                    if (input[1] >= 6.137898) {
                                        var1 = -0.006116188;
                                    } else {
                                        var1 = -0.0013297267;
                                    }
                                } else {
                                    var1 = -0.0011976074;
                                }
                            }
                        } else {
                            if (input[1] >= 6.469916) {
                                if (input[4] >= 2.229475) {
                                    if (input[4] >= 3.0840995) {
                                        if (input[1] >= 6.8209014) {
                                            var1 = 0.00053207815;
                                        } else {
                                            var1 = -0.00031072198;
                                        }
                                    } else {
                                        if (input[1] >= 7.3324094) {
                                            var1 = 0.0004574873;
                                        } else {
                                            if (input[4] >= 2.964198) {
                                                var1 = 0.0008911361;
                                            } else {
                                                if (input[2] >= -0.065848865) {
                                                    if (input[0] >= 17.5) {
                                                        var1 = 0.00012249268;
                                                    } else {
                                                        var1 = 0.0016400395;
                                                    }
                                                } else {
                                                    if (input[1] >= 6.9583893) {
                                                        var1 = 0.0011454388;
                                                    } else {
                                                        if (input[5] >= 441.63422) {
                                                            var1 = 0.0014372204;
                                                        } else {
                                                            var1 = 0.0032335406;
                                                        }
                                                    }
                                                }
                                            }
                                        }
                                    }
                                } else {
                                    if (input[5] >= 445.42035) {
                                        var1 = 0.0037569527;
                                    } else {
                                        if (input[0] >= 18.0) {
                                            var1 = -0.0025941792;
                                        } else {
                                            if (input[1] >= 6.92859) {
                                                if (input[1] >= 7.026585) {
                                                    var1 = 0.0008419803;
                                                } else {
                                                    var1 = 0.00021850911;
                                                }
                                            } else {
                                                var1 = -0.0006403018;
                                            }
                                        }
                                    }
                                }
                            } else {
                                if (input[4] >= 2.3110576) {
                                    if (input[5] >= 444.43347) {
                                        if (input[4] >= 2.8473728) {
                                            if (input[0] >= 20.0) {
                                                var1 = -0.00060188986;
                                            } else {
                                                var1 = -0.002319344;
                                            }
                                        } else {
                                            if (input[1] >= 6.193262) {
                                                var1 = -0.00007560877;
                                            } else {
                                                var1 = -0.00035524662;
                                            }
                                        }
                                    } else {
                                        if (input[4] >= 2.9303408) {
                                            if (input[5] >= 103.787) {
                                                var1 = 0.0021938493;
                                            } else {
                                                var1 = 0.0005403754;
                                            }
                                        } else {
                                            if (input[1] >= 6.1606817) {
                                                if (input[5] >= 184.8689) {
                                                    if (input[0] >= 20.0) {
                                                        var1 = 0.00008288814;
                                                    } else {
                                                        var1 = -0.0000023480445;
                                                    }
                                                } else {
                                                    var1 = 0.00043322332;
                                                }
                                            } else {
                                                var1 = -0.0008502672;
                                            }
                                        }
                                    }
                                } else {
                                    var1 = -0.003214295;
                                }
                            }
                        }
                    }
                }
            }
        } else {
            if (input[5] >= 12.013016) {
                if (input[3] >= 4.0428724) {
                    if (input[2] >= -0.89853716) {
                        if (input[4] >= 3.7599468) {
                            if (input[2] >= -0.11619224) {
                                var1 = -0.00640728;
                            } else {
                                var1 = -0.0099829305;
                            }
                        } else {
                            if (input[0] >= 41.0) {
                                if (input[2] >= -0.3353885) {
                                    var1 = -0.010074655;
                                } else {
                                    var1 = -0.002730678;
                                }
                            } else {
                                if (input[0] >= 38.0) {
                                    if (input[1] >= 5.2706757) {
                                        if (input[4] >= 2.556624) {
                                            if (input[5] >= 102.78516) {
                                                if (input[1] >= 6.00171) {
                                                    var1 = 0.00014785156;
                                                } else {
                                                    var1 = -0.002249011;
                                                }
                                            } else {
                                                if (input[1] >= 5.4237165) {
                                                    var1 = 0.00035424944;
                                                } else {
                                                    var1 = -0.00009274993;
                                                }
                                            }
                                        } else {
                                            var1 = 0.0010382491;
                                        }
                                    } else {
                                        if (input[2] >= -0.02180876) {
                                            var1 = -0.000857019;
                                        } else {
                                            if (input[4] >= 3.5040298) {
                                                if (input[5] >= 121.7451) {
                                                    var1 = 0.00001524975;
                                                } else {
                                                    var1 = -0.003231272;
                                                }
                                            } else {
                                                var1 = -0.005333782;
                                            }
                                        }
                                    }
                                } else {
                                    if (input[4] >= 3.4523728) {
                                        if (input[4] >= 3.5509584) {
                                            if (input[1] >= 4.792182) {
                                                var1 = -0.004952907;
                                            } else {
                                                var1 = -0.0005049187;
                                            }
                                        } else {
                                            if (input[1] >= 4.9149895) {
                                                var1 = 0.0005806073;
                                            } else {
                                                var1 = -0.00060815655;
                                            }
                                        }
                                    } else {
                                        if (input[4] >= 2.2895865) {
                                            var1 = -0.007322445;
                                        } else {
                                            if (input[4] >= 1.9316764) {
                                                if (input[1] >= 5.372344) {
                                                    var1 = 0.0000019562715;
                                                } else {
                                                    var1 = -0.0008781099;
                                                }
                                            } else {
                                                if (input[1] >= 5.6230702) {
                                                    var1 = -0.0062773232;
                                                } else {
                                                    var1 = -0.0022545138;
                                                }
                                            }
                                        }
                                    }
                                }
                            }
                        }
                    } else {
                        var1 = -0.014589272;
                    }
                } else {
                    if (input[5] >= 405.758) {
                        if (input[5] >= 408.98004) {
                            var1 = -0.005502303;
                        } else {
                            var1 = -0.00094620406;
                        }
                    } else {
                        if (input[3] >= 2.4150481) {
                            if (input[4] >= 1.2726693) {
                                if (input[5] >= 21.050632) {
                                    var1 = -0.010130505;
                                } else {
                                    var1 = -0.0039564907;
                                }
                            } else {
                                if (input[0] >= 38.0) {
                                    if (input[1] >= 3.8419633) {
                                        var1 = -0.000011896759;
                                    } else {
                                        var1 = -0.0008091535;
                                    }
                                } else {
                                    var1 = -0.006533167;
                                }
                            }
                        } else {
                            var1 = -0.001955489;
                        }
                    }
                }
            } else {
                var1 = -0.016902654;
            }
        }
    } else {
        if (input[1] >= 1.7488129) {
            if (input[0] >= 12.0) {
                if (input[0] >= 39.5) {
                    if (input[4] >= 1.4355928) {
                        if (input[1] >= 2.1414502) {
                            if (input[0] >= 41.0) {
                                if (input[5] >= 161.80649) {
                                    var1 = -0.0073985304;
                                } else {
                                    var1 = -0.0013755927;
                                }
                            } else {
                                var1 = -0.012135554;
                            }
                        } else {
                            var1 = -0.014950991;
                        }
                    } else {
                        var1 = -0.0022609818;
                    }
                } else {
                    if (input[1] >= 2.7906885) {
                        var1 = -0.003256695;
                    } else {
                        if (input[0] >= 30.5) {
                            if (input[2] >= -1.3941722) {
                                if (input[5] >= 167.168) {
                                    var1 = -0.010437057;
                                } else {
                                    var1 = -0.006346309;
                                }
                            } else {
                                var1 = -0.0036173938;
                            }
                        } else {
                            var1 = -0.0045754416;
                        }
                    }
                }
            } else {
                var1 = -0.015320786;
            }
        } else {
            if (input[0] >= 12.0) {
                if (input[4] >= 1.0005378) {
                    var1 = -0.016547443;
                } else {
                    var1 = -0.006814249;
                }
            } else {
                var1 = -0.019334381;
            }
        }
    }
    double var2;
    if (input[1] >= 3.0333543) {
        if (input[3] >= 5.8092732) {
            if (input[4] >= 3.2523956) {
                if (input[5] >= 65.058685) {
                    if (input[1] >= 13.534949) {
                        if (input[0] >= 20.0) {
                            var2 = 0.0017959367;
                        } else {
                            var2 = -0.00094200176;
                        }
                    } else {
                        if (input[4] >= 3.4131756) {
                            if (input[3] >= 6.004425) {
                                if (input[5] >= 83.405426) {
                                    if (input[1] >= 8.875721) {
                                        if (input[1] >= 9.134693) {
                                            var2 = -0.003839163;
                                        } else {
                                            var2 = -0.00057029206;
                                        }
                                    } else {
                                        var2 = -0.005346451;
                                    }
                                } else {
                                    if (input[0] >= 20.0) {
                                        var2 = 0.00035597567;
                                    } else {
                                        var2 = -0.0019764446;
                                    }
                                }
                            } else {
                                if (input[2] >= -0.43414822) {
                                    var2 = -0.00061069283;
                                } else {
                                    var2 = 0.00009879776;
                                }
                            }
                        } else {
                            if (input[4] >= 3.2721386) {
                                if (input[1] >= 9.484575) {
                                    var2 = -0.0025368559;
                                } else {
                                    if (input[1] >= 6.284566) {
                                        if (input[4] >= 3.2833557) {
                                            if (input[2] >= -0.0875233) {
                                                var2 = 0.0012940749;
                                            } else {
                                                var2 = 0.0004705349;
                                            }
                                        } else {
                                            var2 = 0.0001843721;
                                        }
                                    } else {
                                        var2 = -0.0012624166;
                                    }
                                }
                            } else {
                                if (input[3] >= 6.3301396) {
                                    var2 = -0.0010069583;
                                } else {
                                    var2 = -0.0038595756;
                                }
                            }
                        }
                    }
                } else {
                    if (input[1] >= 10.455765) {
                        var2 = -0.0020447404;
                    } else {
                        var2 = -0.007660687;
                    }
                }
            } else {
                if (input[1] >= 7.556157) {
                    if (input[5] >= 900.00824) {
                        var2 = -0.0049991827;
                    } else {
                        if (input[1] >= 8.641786) {
                            var2 = 0.005762475;
                        } else {
                            if (input[1] >= 8.465532) {
                                if (input[1] >= 8.525703) {
                                    var2 = -0.0015705097;
                                } else {
                                    var2 = 0.000005701035;
                                }
                            } else {
                                if (input[5] >= 174.26505) {
                                    if (input[2] >= -0.29013422) {
                                        if (input[1] >= 8.201212) {
                                            var2 = 0.000003725737;
                                        } else {
                                            var2 = 0.0025070966;
                                        }
                                    } else {
                                        var2 = -0.00077784446;
                                    }
                                } else {
                                    if (input[5] >= 133.7593) {
                                        var2 = 0.004539589;
                                    } else {
                                        if (input[1] >= 8.135079) {
                                            var2 = 0.0004420914;
                                        } else {
                                            if (input[4] >= 1.7316103) {
                                                var2 = 0.0027703356;
                                            } else {
                                                var2 = 0.0005576325;
                                            }
                                        }
                                    }
                                }
                            }
                        }
                    }
                } else {
                    if (input[5] >= 510.56024) {
                        var2 = -0.007259552;
                    } else {
                        if (input[2] >= -0.012806524) {
                            if (input[4] >= 3.0399508) {
                                var2 = 0.0001517693;
                            } else {
                                if (input[2] >= -0.0059224265) {
                                    if (input[1] >= 6.137898) {
                                        var2 = -0.0058499575;
                                    } else {
                                        var2 = -0.0012911392;
                                    }
                                } else {
                                    var2 = -0.0011628538;
                                }
                            }
                        } else {
                            if (input[1] >= 6.469916) {
                                if (input[4] >= 2.229475) {
                                    if (input[4] >= 3.0840995) {
                                        if (input[1] >= 6.8209014) {
                                            var2 = 0.0005166373;
                                        } else {
                                            var2 = -0.00029719673;
                                        }
                                    } else {
                                        if (input[1] >= 7.3324094) {
                                            var2 = 0.000444212;
                                        } else {
                                            if (input[4] >= 2.964198) {
                                                var2 = 0.0008566555;
                                            } else {
                                                if (input[2] >= -0.065848865) {
                                                    if (input[0] >= 17.5) {
                                                        var2 = 0.00011893819;
                                                    } else {
                                                        var2 = 0.0015686512;
                                                    }
                                                } else {
                                                    if (input[1] >= 6.9583893) {
                                                        var2 = 0.0011011197;
                                                    } else {
                                                        if (input[5] >= 441.63422) {
                                                            var2 = 0.0013746587;
                                                        } else {
                                                            var2 = 0.0030693288;
                                                        }
                                                    }
                                                }
                                            }
                                        }
                                    }
                                } else {
                                    if (input[5] >= 445.42035) {
                                        var2 = 0.003647929;
                                    } else {
                                        if (input[0] >= 18.0) {
                                            var2 = -0.0024812578;
                                        } else {
                                            if (input[1] >= 6.92859) {
                                                if (input[1] >= 7.026585) {
                                                    var2 = 0.00081754674;
                                                } else {
                                                    var2 = 0.0002121681;
                                                }
                                            } else {
                                                var2 = -0.0006217207;
                                            }
                                        }
                                    }
                                }
                            } else {
                                if (input[4] >= 2.3110576) {
                                    if (input[5] >= 444.43347) {
                                        if (input[4] >= 2.8473728) {
                                            if (input[0] >= 20.0) {
                                                var2 = -0.00058442354;
                                            } else {
                                                var2 = -0.0022296035;
                                            }
                                        } else {
                                            if (input[1] >= 6.193262) {
                                                var2 = -0.00007341466;
                                            } else {
                                                var2 = -0.0003449377;
                                            }
                                        }
                                    } else {
                                        if (input[4] >= 2.9303408) {
                                            if (input[5] >= 103.787) {
                                                var2 = 0.0021089632;
                                            } else {
                                                var2 = 0.00052469416;
                                            }
                                        } else {
                                            if (input[1] >= 6.1606817) {
                                                if (input[5] >= 184.8689) {
                                                    if (input[0] >= 20.0) {
                                                        var2 = 0.00008048215;
                                                    } else {
                                                        var2 = -0.0000022797221;
                                                    }
                                                } else {
                                                    var2 = 0.00042065198;
                                                }
                                            } else {
                                                var2 = -0.00082559325;
                                            }
                                        }
                                    }
                                } else {
                                    var2 = -0.0030650524;
                                }
                            }
                        }
                    }
                }
            }
        } else {
            if (input[5] >= 12.013016) {
                if (input[3] >= 4.0428724) {
                    if (input[2] >= -0.89853716) {
                        if (input[4] >= 3.617244) {
                            if (input[1] >= 5.3349323) {
                                var2 = -0.009575227;
                            } else {
                                if (input[5] >= 40.0763) {
                                    var2 = -0.006473618;
                                } else {
                                    var2 = -0.0034939519;
                                }
                            }
                        } else {
                            if (input[0] >= 41.0) {
                                if (input[2] >= -0.3353885) {
                                    var2 = -0.009563026;
                                } else {
                                    var2 = -0.0026514363;
                                }
                            } else {
                                if (input[0] >= 38.0) {
                                    if (input[1] >= 5.2706757) {
                                        if (input[4] >= 2.556624) {
                                            if (input[5] >= 102.78516) {
                                                if (input[1] >= 6.00171) {
                                                    var2 = 0.00014356023;
                                                } else {
                                                    var2 = -0.0021329855;
                                                }
                                            } else {
                                                if (input[1] >= 5.4237165) {
                                                    var2 = 0.00034396994;
                                                } else {
                                                    var2 = -0.00009005854;
                                                }
                                            }
                                        } else {
                                            var2 = 0.0010081198;
                                        }
                                    } else {
                                        if (input[4] >= 3.5040298) {
                                            if (input[1] >= 5.0570006) {
                                                var2 = -0.002099227;
                                            } else {
                                                var2 = 0.000014806951;
                                            }
                                        } else {
                                            if (input[2] >= -0.03292638) {
                                                var2 = -0.0008321487;
                                            } else {
                                                var2 = -0.00508613;
                                            }
                                        }
                                    }
                                } else {
                                    if (input[4] >= 3.4523728) {
                                        if (input[4] >= 3.5509584) {
                                            if (input[1] >= 4.8652296) {
                                                var2 = -0.004334765;
                                            } else {
                                                var2 = -0.00049026654;
                                            }
                                        } else {
                                            if (input[1] >= 4.9149895) {
                                                var2 = 0.00055814214;
                                            } else {
                                                var2 = -0.00059050857;
                                            }
                                        }
                                    } else {
                                        if (input[2] >= -0.3145554) {
                                            var2 = -0.006959115;
                                        } else {
                                            if (input[2] >= -0.54514325) {
                                                if (input[2] >= -0.479344) {
                                                    var2 = -0.0029492136;
                                                } else {
                                                    if (input[1] >= 5.372344) {
                                                        var2 = 0.0000018991918;
                                                    } else {
                                                        var2 = -0.0008526282;
                                                    }
                                                }
                                            } else {
                                                var2 = -0.0062467265;
                                            }
                                        }
                                    }
                                }
                            }
                        }
                    } else {
                        var2 = -0.013863495;
                    }
                } else {
                    if (input[3] >= 2.5444055) {
                        if (input[5] >= 405.758) {
                            if (input[5] >= 408.98004) {
                                if (input[2] >= -0.85047495) {
                                    var2 = -0.006118399;
                                } else {
                                    var2 = -0.0021956482;
                                }
                            } else {
                                var2 = -0.00091874617;
                            }
                        } else {
                            if (input[4] >= 1.2726693) {
                                if (input[2] >= -0.3611169) {
                                    if (input[1] >= 3.5483203) {
                                        if (input[1] >= 3.580059) {
                                            var2 = -0.0077510597;
                                        } else {
                                            var2 = -0.002240057;
                                        }
                                    } else {
                                        if (input[1] >= 3.079518) {
                                            var2 = -0.010394513;
                                        } else {
                                            var2 = -0.0016740201;
                                        }
                                    }
                                } else {
                                    var2 = -0.011717555;
                                }
                            } else {
                                if (input[0] >= 38.0) {
                                    if (input[1] >= 3.8419633) {
                                        var2 = -0.000011551688;
                                    } else {
                                        var2 = -0.00078567216;
                                    }
                                } else {
                                    var2 = -0.006248785;
                                }
                            }
                        }
                    } else {
                        var2 = -0.0038352653;
                    }
                }
            } else {
                var2 = -0.016044272;
            }
        }
    } else {
        if (input[1] >= 1.7488129) {
            if (input[0] >= 12.0) {
                if (input[0] >= 39.5) {
                    if (input[4] >= 1.4355928) {
                        if (input[1] >= 2.1414502) {
                            if (input[0] >= 41.0) {
                                if (input[5] >= 161.80649) {
                                    var2 = -0.0070228064;
                                } else {
                                    var2 = -0.0013356742;
                                }
                            } else {
                                var2 = -0.011464763;
                            }
                        } else {
                            var2 = -0.014134301;
                        }
                    } else {
                        var2 = -0.00219537;
                    }
                } else {
                    if (input[1] >= 2.7906885) {
                        var2 = -0.003114934;
                    } else {
                        if (input[5] >= 110.64729) {
                            if (input[2] >= -1.3941722) {
                                var2 = -0.009272892;
                            } else {
                                var2 = -0.0047922754;
                            }
                        } else {
                            var2 = -0.0050772843;
                        }
                    }
                }
            } else {
                var2 = -0.014451799;
            }
        } else {
            if (input[1] >= 0.8555068) {
                if (input[2] >= -2.088032) {
                    if (input[4] >= 1.3803383) {
                        var2 = -0.016002556;
                    } else {
                        var2 = -0.00655059;
                    }
                } else {
                    var2 = -0.008831217;
                }
            } else {
                var2 = -0.018250633;
            }
        }
    }
    double var3;
    if (input[3] >= 2.2187138) {
        if (input[3] >= 5.8092732) {
            if (input[4] >= 3.2523956) {
                if (input[5] >= 65.058685) {
                    if (input[1] >= 13.534949) {
                        if (input[0] >= 20.0) {
                            var3 = 0.0017177612;
                        } else {
                            var3 = -0.00091466587;
                        }
                    } else {
                        if (input[4] >= 3.4131756) {
                            if (input[3] >= 6.004425) {
                                if (input[1] >= 11.657883) {
                                    if (input[5] >= 346.39368) {
                                        var3 = -0.003092547;
                                    } else {
                                        if (input[0] >= 20.0) {
                                            var3 = 0.000345646;
                                        } else {
                                            var3 = -0.0004985725;
                                        }
                                    }
                                } else {
                                    var3 = -0.004644228;
                                }
                            } else {
                                if (input[2] >= -0.43414822) {
                                    var3 = -0.0005870642;
                                } else {
                                    var3 = 0.00009592994;
                                }
                            }
                        } else {
                            if (input[4] >= 3.2721386) {
                                if (input[1] >= 9.484575) {
                                    var3 = -0.002463238;
                                } else {
                                    if (input[1] >= 6.284566) {
                                        if (input[4] >= 3.2833557) {
                                            if (input[2] >= -0.0875233) {
                                                var3 = 0.0012440041;
                                            } else {
                                                var3 = 0.00045232938;
                                            }
                                        } else {
                                            var3 = 0.00017902219;
                                        }
                                    } else {
                                        var3 = -0.0012135704;
                                    }
                                }
                            } else {
                                if (input[1] >= 6.3703947) {
                                    var3 = -0.0014804904;
                                } else {
                                    var3 = -0.004093431;
                                }
                            }
                        }
                    }
                } else {
                    if (input[1] >= 10.455765) {
                        var3 = -0.0019854037;
                    } else {
                        var3 = -0.007279589;
                    }
                }
            } else {
                if (input[1] >= 7.556157) {
                    if (input[5] >= 900.00824) {
                        var3 = -0.0048541096;
                    } else {
                        if (input[1] >= 8.641786) {
                            var3 = 0.0054698363;
                        } else {
                            if (input[1] >= 8.465532) {
                                if (input[1] >= 8.525703) {
                                    var3 = -0.0015249343;
                                } else {
                                    var3 = 0.0000055349856;
                                }
                            } else {
                                if (input[5] >= 174.26505) {
                                    if (input[2] >= -0.29013422) {
                                        if (input[1] >= 8.201212) {
                                            var3 = 0.0000036167671;
                                        } else {
                                            var3 = 0.0023858398;
                                        }
                                    } else {
                                        var3 = -0.0007552721;
                                    }
                                } else {
                                    if (input[5] >= 133.7593) {
                                        var3 = 0.0043090507;
                                    } else {
                                        if (input[1] >= 8.135079) {
                                            var3 = 0.00042926235;
                                        } else {
                                            if (input[4] >= 1.7316103) {
                                                var3 = 0.0026363458;
                                            } else {
                                                var3 = 0.0005414496;
                                            }
                                        }
                                    }
                                }
                            }
                        }
                    }
                } else {
                    if (input[5] >= 510.56024) {
                        var3 = -0.006978663;
                    } else {
                        if (input[2] >= -0.012806524) {
                            if (input[4] >= 3.0399508) {
                                var3 = 0.00014736553;
                            } else {
                                if (input[2] >= -0.0059224265) {
                                    if (input[1] >= 6.137898) {
                                        var3 = -0.0055953157;
                                    } else {
                                        var3 = -0.0012536716;
                                    }
                                } else {
                                    var3 = -0.0011291085;
                                }
                            }
                        } else {
                            if (input[1] >= 6.469916) {
                                if (input[4] >= 2.229475) {
                                    if (input[4] >= 3.0840995) {
                                        if (input[1] >= 6.8209014) {
                                            var3 = 0.0005016444;
                                        } else {
                                            var3 = -0.00028426043;
                                        }
                                    } else {
                                        if (input[1] >= 7.3324094) {
                                            var3 = 0.00043132066;
                                        } else {
                                            if (input[4] >= 2.964198) {
                                                if (input[1] >= 6.8703823) {
                                                    var3 = 0.0009880313;
                                                } else {
                                                    var3 = 0.00024723395;
                                                }
                                            } else {
                                                if (input[2] >= -0.065848865) {
                                                    if (input[0] >= 17.5) {
                                                        var3 = 0.00011548747;
                                                    } else {
                                                        var3 = 0.0015003685;
                                                    }
                                                } else {
                                                    if (input[1] >= 6.9583893) {
                                                        var3 = 0.0010585141;
                                                    } else {
                                                        if (input[5] >= 441.63422) {
                                                            var3 = 0.0013148211;
                                                        } else {
                                                            var3 = 0.0029134564;
                                                        }
                                                    }
                                                }
                                            }
                                        }
                                    }
                                } else {
                                    if (input[5] >= 445.42035) {
                                        var3 = 0.0035420689;
                                    } else {
                                        if (input[0] >= 18.0) {
                                            var3 = -0.0023732516;
                                        } else {
                                            if (input[1] >= 6.92859) {
                                                if (input[1] >= 7.026585) {
                                                    var3 = 0.0007938224;
                                                } else {
                                                    var3 = 0.00020601043;
                                                }
                                            } else {
                                                var3 = -0.0006036792;
                                            }
                                        }
                                    }
                                }
                            } else {
                                if (input[4] >= 2.3110576) {
                                    if (input[5] >= 444.43347) {
                                        if (input[4] >= 2.8473728) {
                                            if (input[0] >= 20.0) {
                                                var3 = -0.000567464;
                                            } else {
                                                var3 = -0.0021433348;
                                            }
                                        } else {
                                            if (input[1] >= 6.193262) {
                                                var3 = -0.00007128456;
                                            } else {
                                                var3 = -0.00033492802;
                                            }
                                        }
                                    } else {
                                        if (input[4] >= 2.9303408) {
                                            if (input[5] >= 103.787) {
                                                var3 = 0.0020273614;
                                            } else {
                                                var3 = 0.00050946773;
                                            }
                                        } else {
                                            if (input[1] >= 6.1606817) {
                                                if (input[5] >= 184.8689) {
                                                    if (input[0] >= 20.0) {
                                                        var3 = 0.00007814707;
                                                    } else {
                                                        var3 = -0.000002213994;
                                                    }
                                                } else {
                                                    var3 = 0.0004084456;
                                                }
                                            } else {
                                                var3 = -0.0008016354;
                                            }
                                        }
                                    }
                                } else {
                                    var3 = -0.0029227398;
                                }
                            }
                        }
                    }
                }
            }
        } else {
            if (input[1] >= 3.5153298) {
                if (input[5] >= 12.013016) {
                    if (input[2] >= -0.89853716) {
                        if (input[1] >= 4.8185024) {
                            if (input[4] >= 4.3588204) {
                                var3 = -0.008391779;
                            } else {
                                if (input[2] >= -0.029639676) {
                                    if (input[4] >= 3.3197207) {
                                        if (input[4] >= 3.5564294) {
                                            var3 = -0.0045307376;
                                        } else {
                                            var3 = -0.0012329693;
                                        }
                                    } else {
                                        if (input[4] >= 1.9508727) {
                                            var3 = -0.008812532;
                                        } else {
                                            var3 = -0.002809312;
                                        }
                                    }
                                } else {
                                    if (input[5] >= 111.30534) {
                                        if (input[0] >= 15.0) {
                                            if (input[0] >= 38.0) {
                                                if (input[4] >= 2.481412) {
                                                    if (input[1] >= 6.00171) {
                                                        var3 = 0.00013939342;
                                                    } else {
                                                        if (input[3] >= 4.9710617) {
                                                            var3 = -0.0022920556;
                                                        } else {
                                                            if (input[3] >= 4.8502793) {
                                                                var3 = 0.000014377125;
                                                            } else {
                                                                var3 = -0.001423815;
                                                            }
                                                        }
                                                    }
                                                } else {
                                                    var3 = 0.0009788657;
                                                }
                                            } else {
                                                var3 = -0.004582315;
                                            }
                                        } else {
                                            if (input[3] >= 5.1833735) {
                                                if (input[1] >= 5.8268414) {
                                                    var3 = 0.000001843842;
                                                } else {
                                                    var3 = 0.0005365465;
                                                }
                                            } else {
                                                var3 = -0.0011067232;
                                            }
                                        }
                                    } else {
                                        if (input[2] >= -0.054355234) {
                                            if (input[1] >= 5.4237165) {
                                                var3 = 0.00033398793;
                                            } else {
                                                var3 = -0.00008744498;
                                            }
                                        } else {
                                            var3 = -0.0060766153;
                                        }
                                    }
                                }
                            }
                        } else {
                            if (input[4] >= 1.1512591) {
                                if (input[4] >= 3.2365937) {
                                    if (input[0] >= 41.0) {
                                        if (input[5] >= 267.4629) {
                                            var3 = -0.0018952008;
                                        } else {
                                            var3 = -0.0049101706;
                                        }
                                    } else {
                                        if (input[0] >= 39.5) {
                                            if (input[4] >= 3.632657) {
                                                if (input[4] >= 7.5299225) {
                                                    var3 = -0.0022831159;
                                                } else {
                                                    if (input[5] >= 327.62488) {
                                                        var3 = -0.0024502377;
                                                    } else {
                                                        var3 = -0.008856158;
                                                    }
                                                }
                                            } else {
                                                if (input[5] >= 121.694855) {
                                                    var3 = -0.0058615673;
                                                } else {
                                                    var3 = -0.0018829962;
                                                }
                                            }
                                        } else {
                                            if (input[2] >= -0.20611832) {
                                                if (input[1] >= 4.5472193) {
                                                    if (input[1] >= 4.6725183) {
                                                        var3 = -0.004494438;
                                                    } else {
                                                        var3 = -0.0013473543;
                                                    }
                                                } else {
                                                    if (input[0] >= 37.5) {
                                                        var3 = -0.0013396273;
                                                    } else {
                                                        var3 = -0.006625169;
                                                    }
                                                }
                                            } else {
                                                var3 = -0.0010640946;
                                            }
                                        }
                                    }
                                } else {
                                    if (input[3] >= 3.5048528) {
                                        if (input[2] >= -0.41331655) {
                                            var3 = -0.009639357;
                                        } else {
                                            var3 = -0.0013524054;
                                        }
                                    } else {
                                        var3 = -0.00089208485;
                                    }
                                }
                            } else {
                                if (input[1] >= 3.8419633) {
                                    var3 = -0.000011216129;
                                } else {
                                    var3 = -0.00076287234;
                                }
                            }
                        }
                    } else {
                        if (input[1] >= 4.659478) {
                            var3 = -0.013239499;
                        } else {
                            var3 = -0.0030382327;
                        }
                    }
                } else {
                    var3 = -0.014756173;
                }
            } else {
                if (input[2] >= -0.779999) {
                    if (input[0] >= 33.5) {
                        if (input[0] >= 39.5) {
                            if (input[4] >= 1.4781291) {
                                if (input[3] >= 3.439146) {
                                    var3 = -0.0023660462;
                                } else {
                                    if (input[5] >= 440.55365) {
                                        var3 = -0.0025215768;
                                    } else {
                                        var3 = -0.009993603;
                                    }
                                }
                            } else {
                                var3 = -0.002131662;
                            }
                        } else {
                            if (input[2] >= -0.14897706) {
                                var3 = -0.006473743;
                            } else {
                                var3 = -0.002789435;
                            }
                        }
                    } else {
                        var3 = -0.011369984;
                    }
                } else {
                    var3 = -0.0017314317;
                }
            }
        }
    } else {
        if (input[1] >= 1.4277008) {
            if (input[4] >= 3.441587) {
                if (input[2] >= -0.7580425) {
                    var3 = -0.012765028;
                } else {
                    if (input[5] >= 110.64729) {
                        if (input[3] >= 1.7243724) {
                            var3 = -0.0031497534;
                        } else {
                            if (input[1] >= 2.9465744) {
                                var3 = -0.002513935;
                            } else {
                                if (input[4] >= 3.578391) {
                                    var3 = -0.009479042;
                                } else {
                                    var3 = -0.0026391547;
                                }
                            }
                        }
                    } else {
                        var3 = -0.0029279415;
                    }
                }
            } else {
                if (input[4] >= 1.2295139) {
                    var3 = -0.016119724;
                } else {
                    var3 = -0.0062971325;
                }
            }
        } else {
            if (input[0] >= 12.0) {
                var3 = -0.014722162;
            } else {
                var3 = -0.017209167;
            }
        }
    }
    double var4;
    if (input[1] >= 3.0333543) {
        if (input[3] >= 5.8092732) {
            if (input[4] >= 3.2523956) {
                if (input[5] >= 65.058685) {
                    if (input[1] >= 13.534949) {
                        if (input[0] >= 20.0) {
                            var4 = 0.0016429895;
                        } else {
                            var4 = -0.000888123;
                        }
                    } else {
                        if (input[3] >= 5.9814806) {
                            if (input[4] >= 3.4294093) {
                                if (input[5] >= 95.91725) {
                                    if (input[1] >= 10.371026) {
                                        if (input[5] >= 378.8567) {
                                            var4 = -0.003776717;
                                        } else {
                                            var4 = -0.00096351514;
                                        }
                                    } else {
                                        if (input[4] >= 5.415413) {
                                            var4 = -0.0019361397;
                                        } else {
                                            var4 = -0.0051454036;
                                        }
                                    }
                                } else {
                                    if (input[1] >= 8.188119) {
                                        if (input[0] >= 20.0) {
                                            var4 = 0.00033561556;
                                        } else {
                                            var4 = -0.0004189707;
                                        }
                                    } else {
                                        var4 = -0.002704741;
                                    }
                                }
                            } else {
                                if (input[4] >= 3.2721386) {
                                    if (input[1] >= 9.484575) {
                                        var4 = -0.0025449188;
                                    } else {
                                        if (input[1] >= 6.3189516) {
                                            if (input[4] >= 3.2833557) {
                                                if (input[2] >= -0.0875233) {
                                                    var4 = 0.0011958705;
                                                } else {
                                                    var4 = 0.00027848067;
                                                }
                                            } else {
                                                var4 = 0.00017382795;
                                            }
                                        } else {
                                            var4 = -0.0011666141;
                                        }
                                    }
                                } else {
                                    if (input[0] >= 20.0) {
                                        var4 = -0.0017804906;
                                    } else {
                                        var4 = -0.0044763978;
                                    }
                                }
                            }
                        } else {
                            if (input[2] >= -0.43414822) {
                                var4 = -0.0005643488;
                            } else {
                                if (input[1] >= 6.3078966) {
                                    var4 = 0.00009314689;
                                } else {
                                    var4 = 0.00037376027;
                                }
                            }
                        }
                    }
                } else {
                    if (input[1] >= 10.455765) {
                        var4 = -0.0019277887;
                    } else {
                        var4 = -0.0069174496;
                    }
                }
            } else {
                if (input[1] >= 7.556157) {
                    if (input[5] >= 900.00824) {
                        var4 = -0.0047132466;
                    } else {
                        if (input[1] >= 8.641786) {
                            var4 = 0.0051920563;
                        } else {
                            if (input[1] >= 8.465532) {
                                if (input[1] >= 8.525703) {
                                    var4 = -0.0014806822;
                                } else {
                                    var4 = 0.000005374125;
                                }
                            } else {
                                if (input[5] >= 174.26505) {
                                    if (input[2] >= -0.29013422) {
                                        if (input[1] >= 8.201212) {
                                            var4 = 0.0000035112564;
                                        } else {
                                            var4 = 0.0022704469;
                                        }
                                    } else {
                                        var4 = -0.0007333544;
                                    }
                                } else {
                                    if (input[5] >= 114.306244) {
                                        var4 = 0.0037754388;
                                    } else {
                                        var4 = 0.0016260085;
                                    }
                                }
                            }
                        }
                    }
                } else {
                    if (input[5] >= 510.56024) {
                        var4 = -0.0067086425;
                    } else {
                        if (input[2] >= -0.012806524) {
                            if (input[4] >= 3.0399508) {
                                var4 = 0.00014308975;
                            } else {
                                if (input[4] >= 2.8588767) {
                                    var4 = -0.00642199;
                                } else {
                                    var4 = -0.002638063;
                                }
                            }
                        } else {
                            if (input[1] >= 6.469916) {
                                if (input[4] >= 2.229475) {
                                    if (input[4] >= 3.0840995) {
                                        if (input[1] >= 6.8209014) {
                                            var4 = 0.00048708738;
                                        } else {
                                            var4 = -0.00027188714;
                                        }
                                    } else {
                                        if (input[1] >= 7.3324094) {
                                            var4 = 0.00041880467;
                                        } else {
                                            if (input[4] >= 2.964198) {
                                                if (input[1] >= 6.8703823) {
                                                    var4 = 0.00095936;
                                                } else {
                                                    var4 = 0.00024005923;
                                                }
                                            } else {
                                                if (input[2] >= -0.065848865) {
                                                    if (input[0] >= 17.5) {
                                                        var4 = 0.00011213535;
                                                    } else {
                                                        var4 = 0.0014350591;
                                                    }
                                                } else {
                                                    var4 = 0.002323617;
                                                }
                                            }
                                        }
                                    }
                                } else {
                                    if (input[5] >= 445.42035) {
                                        var4 = 0.003439281;
                                    } else {
                                        if (input[0] >= 18.0) {
                                            var4 = -0.0022699467;
                                        } else {
                                            if (input[1] >= 6.92859) {
                                                if (input[1] >= 7.026585) {
                                                    var4 = 0.0007707865;
                                                } else {
                                                    var4 = 0.00020003265;
                                                }
                                            } else {
                                                var4 = -0.00058616104;
                                            }
                                        }
                                    }
                                }
                            } else {
                                if (input[4] >= 2.3110576) {
                                    if (input[5] >= 444.43347) {
                                        if (input[4] >= 2.8473728) {
                                            if (input[0] >= 20.0) {
                                                var4 = -0.00055099657;
                                            } else {
                                                var4 = -0.0020604045;
                                            }
                                        } else {
                                            if (input[1] >= 6.193262) {
                                                var4 = -0.00006921586;
                                            } else {
                                                var4 = -0.00032520894;
                                            }
                                        }
                                    } else {
                                        if (input[4] >= 2.9303408) {
                                            if (input[5] >= 103.787) {
                                                var4 = 0.0019489191;
                                            } else {
                                                var4 = 0.00049468415;
                                            }
                                        } else {
                                            if (input[1] >= 6.1606817) {
                                                if (input[5] >= 184.8689) {
                                                    if (input[0] >= 20.0) {
                                                        var4 = 0.00007587946;
                                                    } else {
                                                        var4 = -0.000002149996;
                                                    }
                                                } else {
                                                    var4 = 0.00039659208;
                                                }
                                            } else {
                                                var4 = -0.0007783729;
                                            }
                                        }
                                    }
                                } else {
                                    var4 = -0.0027870343;
                                }
                            }
                        }
                    }
                }
            }
        } else {
            if (input[5] >= 12.013016) {
                if (input[3] >= 4.0428724) {
                    if (input[2] >= -0.89853716) {
                        if (input[5] >= 337.06543) {
                            if (input[1] >= 4.9913263) {
                                if (input[5] >= 394.70972) {
                                    if (input[3] >= 5.2796564) {
                                        var4 = -0.0032483367;
                                    } else {
                                        if (input[1] >= 5.804682) {
                                            var4 = 0.0001353477;
                                        } else {
                                            var4 = -0.0013305552;
                                        }
                                    }
                                } else {
                                    var4 = 0.00095045904;
                                }
                            } else {
                                var4 = -0.0054832343;
                            }
                        } else {
                            if (input[5] >= 230.7866) {
                                if (input[3] >= 5.619666) {
                                    var4 = -0.0015384769;
                                } else {
                                    if (input[1] >= 4.5877714) {
                                        var4 = -0.009635024;
                                    } else {
                                        var4 = -0.002448221;
                                    }
                                }
                            } else {
                                if (input[1] >= 5.808848) {
                                    if (input[0] >= 18.0) {
                                        if (input[0] >= 38.0) {
                                            var4 = -0.00079106964;
                                        } else {
                                            var4 = -0.003324096;
                                        }
                                    } else {
                                        if (input[1] >= 5.8268414) {
                                            var4 = 0.0000017902219;
                                        } else {
                                            var4 = 0.0005802602;
                                        }
                                    }
                                } else {
                                    if (input[1] >= 5.609871) {
                                        var4 = -0.008446358;
                                    } else {
                                        if (input[1] >= 5.565649) {
                                            if (input[0] >= 20.0) {
                                                var4 = 0.00032429653;
                                            } else {
                                                var4 = -0.0015294601;
                                            }
                                        } else {
                                            if (input[5] >= 41.13899) {
                                                if (input[2] >= -0.3972143) {
                                                    if (input[5] >= 183.16026) {
                                                        var4 = -0.0013198485;
                                                    } else {
                                                        if (input[4] >= 3.0428925) {
                                                            if (input[1] >= 4.9418817) {
                                                                var4 = -0.0032734743;
